{"Epoch": 3, "Loss": 1.7482095285138088, "Train Accuracy": 0.5408445096917067, "Train Precision": 0.5449968556839623, "Train Recall": 0.5408445096917067, "Train F1": 0.5381868058816681, "Validation Accuracy": 0.5271713887598699, "Validation Precision": 0.5303617479852587, "Validation Recall": 0.5271713887598699, "Validation F1": 0.5243966010533231, "_timestamp": 1702607326.8505554, "_runtime": 18384.50653243065, "_step": 2, "gradients/fc2.bias": {"_type": "histogram", "values": [1.0, 0.0, 0.0, 0.0, 0.0, 0.0, 0.0, 0.0, 0.0, 0.0, 0.0, 0.0, 0.0, 0.0, 1.0, 0.0, 1.0, 0.0, 0.0, 1.0, 0.0, 1.0, 1.0, 2.0, 1.0, 0.0, 0.0, 1.0, 1.0, 0.0, 0.0, 0.0, 0.0, 1.0, 12.0, 0.0, 0.0, 3.0, 1.0, 1.0, 0.0, 1.0, 1.0, 0.0, 0.0, 1.0, 0.0, 0.0, 0.0, 0.0, 1.0, 0.0, 0.0, 0.0, 3.0, 0.0, 0.0, 0.0, 0.0, 0.0, 0.0, 0.0, 0.0, 1.0], "bins": [-0.04468240588903427, -0.04337838292121887, -0.04207436367869377, -0.04077034071087837, -0.03946631774306297, -0.03816229850053787, -0.03685827553272247, -0.035554252564907074, -0.03425023332238197, -0.032946210354566574, -0.03164219111204147, -0.030338168144226074, -0.029034147039055824, -0.027730125933885574, -0.026426102966070175, -0.025122081860899925, -0.023818058893084526, -0.022514037787914276, -0.021210014820098877, -0.019905993714928627, -0.018601972609758377, -0.017297949641942978, -0.015993928536772728, -0.014689907431602478, -0.013385884463787079, -0.012081862427294254, -0.010777841322124004, -0.00947381928563118, -0.00816979818046093, -0.006865776143968105, -0.005561754107475281, -0.004257733002305031, -0.002953711897134781, -0.0016496902098879218, -0.00034566852264106274, 0.0009583532810211182, 0.0022623748518526554, 0.0035663964226841927, 0.004870418459177017, 0.006174439564347267, 0.007478460669517517, 0.008782482706010342, 0.010086503811180592, 0.011390525847673416, 0.012694546952843666, 0.01399856898933649, 0.015302591025829315, 0.016606612130999565, 0.017910635098814964, 0.019214656203985214, 0.020518679171800613, 0.021822700276970863, 0.023126721382141113, 0.024430744349956512, 0.025734765455126762, 0.027038786560297012, 0.02834280952811241, 0.02964683063328266, 0.03095085360109806, 0.03225487470626831, 0.03355889767408371, 0.03486291691660881, 0.03616693988442421, 0.03747095912694931, 0.03877498209476471]}, "gradients/fc2.weight": {"_type": "histogram", "values": [1.0, 0.0, 0.0, 2.0, 2.0, 3.0, 3.0, 4.0, 2.0, 6.0, 13.0, 5.0, 7.0, 11.0, 20.0, 20.0, 30.0, 22.0, 37.0, 53.0, 61.0, 86.0, 95.0, 128.0, 170.0, 181.0, 259.0, 325.0, 432.0, 33634.0, 1020.0, 497.0, 270.0, 140.0, 119.0, 66.0, 39.0, 30.0, 23.0, 16.0, 12.0, 6.0, 10.0, 5.0, 4.0, 3.0, 3.0, 5.0, 0.0, 2.0, 1.0, 1.0, 2.0, 1.0, 0.0, 0.0, 0.0, 0.0, 0.0, 0.0, 0.0, 0.0, 0.0, 1.0], "bins": [-0.2610240876674652, -0.2520309090614319, -0.24303771555423737, -0.23404453694820404, -0.22505134344100952, -0.2160581648349762, -0.20706498622894287, -0.19807180762290955, -0.18907861411571503, -0.1800854355096817, -0.17109224200248718, -0.16209906339645386, -0.15310588479042053, -0.144112691283226, -0.1351195126771927, -0.12612631916999817, -0.11713314056396484, -0.10813995450735092, -0.099146768450737, -0.09015358984470367, -0.08116040378808975, -0.07216721773147583, -0.0631740391254425, -0.05418085306882858, -0.04518766701221466, -0.03619448095560074, -0.027201298624277115, -0.018208114430308342, -0.009214930236339569, -0.00022174417972564697, 0.008771438151597977, 0.0177646204829216, 0.026757776737213135, 0.03575096279382706, 0.04474414512515068, 0.053737327456474304, 0.06273051351308823, 0.07172369956970215, 0.08071687817573547, 0.0897100642323494, 0.09870325028896332, 0.10769643634557724, 0.11668962240219116, 0.1256828010082245, 0.1346759796142578, 0.14366917312145233, 0.15266235172748566, 0.16165554523468018, 0.1706487238407135, 0.17964190244674683, 0.18863509595394135, 0.19762827455997467, 0.2066214680671692, 0.21561464667320251, 0.22460782527923584, 0.23360100388526917, 0.24259419739246368, 0.2515873908996582, 0.26058056950569153, 0.26957374811172485, 0.2785669267177582, 0.2875601053237915, 0.2965533137321472, 0.30554649233818054, 0.31453967094421387]}, "gradients/fc1.bias": {"_type": "histogram", "values": [1.0, 0.0, 0.0, 0.0, 0.0, 1.0, 0.0, 0.0, 0.0, 0.0, 2.0, 0.0, 1.0, 0.0, 3.0, 2.0, 5.0, 3.0, 3.0, 5.0, 2.0, 6.0, 3.0, 7.0, 7.0, 7.0, 9.0, 11.0, 14.0, 12.0, 8.0, 14.0, 19.0, 18.0, 701.0, 23.0, 19.0, 13.0, 14.0, 13.0, 13.0, 11.0, 3.0, 10.0, 3.0, 4.0, 7.0, 3.0, 3.0, 6.0, 0.0, 3.0, 2.0, 1.0, 0.0, 2.0, 0.0, 2.0, 1.0, 0.0, 0.0, 1.0, 1.0, 2.0], "bins": [-0.0081748366355896, -0.007940337993204594, -0.007705838419497013, -0.007471339777112007, -0.007236840669065714, -0.007002341561019421, -0.006767842452973127, -0.006533343344926834, -0.006298844236880541, -0.006064345128834248, -0.005829846020787954, -0.005595346912741661, -0.005360848270356655, -0.005126349162310362, -0.004891850054264069, -0.004657350946217775, -0.004422851838171482, -0.004188352730125189, -0.003953853622078896, -0.003719354746863246, -0.0034848556388169527, -0.003250356763601303, -0.00301585765555501, -0.0027813585475087166, -0.0025468599051237106, -0.0023123607970774174, -0.0020778619218617678, -0.0018433628138154745, -0.0016088637057691813, -0.0013743647141382098, -0.0011398657225072384, -0.0009053666144609451, -0.0006708675064146519, -0.0004363684565760195, -0.00020186943584121764, 3.262958489358425e-05, 0.0002671286347322166, 0.0005016276845708489, 0.0007361266762018204, 0.0009706257842481136, 0.0012051248922944069, 0.0014396238839253783, 0.0016741229919716716, 0.001908621983602643, 0.0021431210916489363, 0.002377619966864586, 0.002612119074910879, 0.0028466181829571724, 0.003081117058172822, 0.0033156161662191153, 0.003550115041434765, 0.003784614149481058, 0.004019113257527351, 0.004253612365573645, 0.004488111473619938, 0.004722610116004944, 0.004957109224051237, 0.00519160833209753, 0.005426107440143824, 0.005660606548190117, 0.005895105190575123, 0.006129604298621416, 0.006364103406667709, 0.006598602514714003, 0.006833101622760296]}, "gradients/fc1.weight": {"_type": "histogram", "values": [1.0, 1.0, 0.0, 1.0, 0.0, 0.0, 0.0, 1.0, 1.0, 4.0, 1.0, 0.0, 0.0, 2.0, 4.0, 3.0, 8.0, 7.0, 11.0, 24.0, 22.0, 32.0, 46.0, 99.0, 207.0, 407.0, 812.0, 1826.0, 4454.0, 11627.0, 35162.0, 141819.0, 203366496.0, 1784073.0, 134766.0, 34802.0, 11926.0, 4555.0, 2149.0, 1104.0, 558.0, 289.0, 168.0, 75.0, 47.0, 32.0, 16.0, 8.0, 8.0, 7.0, 3.0, 3.0, 1.0, 7.0, 4.0, 4.0, 1.0, 0.0, 1.0, 0.0, 1.0, 3.0, 0.0, 1.0], "bins": [-0.01422777771949768, -0.013796488754451275, -0.013365199789404869, -0.012933910824358463, -0.012502621859312057, -0.012071331962943077, -0.011640042997896671, -0.011208754032850266, -0.01077746506780386, -0.010346176102757454, -0.009914887137711048, -0.009483598172664642, -0.009052308276295662, -0.00862102024257183, -0.00818973034620285, -0.0077584413811564445, -0.007327152416110039, -0.006895863451063633, -0.006464574486017227, -0.006033285055309534, -0.005601996090263128, -0.0051707071252167225, -0.004739417694509029, -0.004308128729462624, -0.003876839764416218, -0.003445550799369812, -0.0030142616014927626, -0.002582972403615713, -0.0021516834385693073, -0.0017203944735229015, -0.001289105275645852, -0.0008578160777688026, -0.00042652711272239685, 4.761968739330769e-06, 0.0004360510502010584, 0.000867340131662786, 0.0012986292131245136, 0.0017299181781709194, 0.002161207376047969, 0.0025924965739250183, 0.003023785538971424, 0.00345507450401783, 0.0038863637018948793, 0.004317652899771929, 0.004748941864818335, 0.00518023082986474, 0.0056115202605724335, 0.006042809225618839, 0.006474098190665245, 0.006905387155711651, 0.007336676120758057, 0.00776796555146575, 0.008199254050850868, 0.008630543947219849, 0.009061832912266254, 0.00949312187731266, 0.009924410842359066, 0.010355699807405472, 0.010786988772451878, 0.011218277737498283, 0.011649567633867264, 0.012080855667591095, 0.012512145563960075, 0.012943434529006481, 0.013374723494052887]}, "gradients/conv3.weight": {"_type": "histogram", "values": [2.0, 4.0, 5.0, 9.0, 11.0, 12.0, 17.0, 15.0, 30.0, 25.0, 44.0, 46.0, 68.0, 111.0, 176.0, 252.0, 592.0, 287473.0, 4822.0, 508.0, 215.0, 136.0, 70.0, 64.0, 39.0, 28.0, 19.0, 16.0, 9.0, 8.0, 7.0, 6.0, 16.0, 9.0, 6.0, 2.0, 5.0, 8.0, 3.0, 1.0, 2.0, 1.0, 0.0, 1.0, 1.0, 3.0, 2.0, 1.0, 1.0, 1.0, 1.0, 0.0, 0.0, 2.0, 0.0, 0.0, 0.0, 1.0, 3.0, 0.0, 1.0, 0.0, 1.0, 1.0], "bins": [-0.17939381301403046, -0.16940486431121826, -0.15941590070724487, -0.14942695200443268, -0.13943800330162048, -0.1294490396976471, -0.1194600909948349, -0.10947113484144211, -0.09948217868804932, -0.08949322253465652, -0.07950426638126373, -0.06951531767845154, -0.059526361525058746, -0.049537405371665955, -0.03954845294356346, -0.029559500515460968, -0.019570544362068176, -0.009581590071320534, 0.00040736421942710876, 0.010396318510174751, 0.020385272800922394, 0.030374228954315186, 0.04036318138241768, 0.05035213381052017, 0.060341089963912964, 0.07033004611730576, 0.08031900227069855, 0.09030795097351074, 0.10029690712690353, 0.11028586328029633, 0.12027481198310852, 0.1302637755870819, 0.1402527391910553, 0.1502416878938675, 0.16023065149784088, 0.17021960020065308, 0.18020856380462646, 0.19019751250743866, 0.20018646121025085, 0.21017542481422424, 0.22016437351703644, 0.23015332221984863, 0.24014228582382202, 0.2501312494277954, 0.2601201832294464, 0.2701091468334198, 0.2800981104373932, 0.2900870442390442, 0.3000760078430176, 0.31006497144699097, 0.32005390524864197, 0.33004286885261536, 0.34003183245658875, 0.35002076625823975, 0.36000972986221313, 0.3699986934661865, 0.3799876570701599, 0.3899766206741333, 0.3999655544757843, 0.4099545180797577, 0.4199434816837311, 0.4299324154853821, 0.43992137908935547, 0.44991034269332886, 0.45989927649497986]}, "gradients/conv3.bias": {"_type": "histogram", "values": [2.0, 0.0, 0.0, 0.0, 0.0, 0.0, 0.0, 0.0, 0.0, 0.0, 1.0, 0.0, 1.0, 0.0, 0.0, 0.0, 0.0, 1.0, 0.0, 0.0, 3.0, 1.0, 0.0, 2.0, 1.0, 2.0, 2.0, 5.0, 8.0, 204.0, 10.0, 5.0, 2.0, 1.0, 0.0, 0.0, 1.0, 2.0, 0.0, 0.0, 1.0, 0.0, 0.0, 0.0, 0.0, 0.0, 0.0, 0.0, 0.0, 0.0, 0.0, 0.0, 0.0, 0.0, 0.0, 0.0, 0.0, 0.0, 0.0, 0.0, 0.0, 0.0, 0.0, 1.0], "bins": [-0.4232204556465149, -0.40886610746383667, -0.39451175928115845, -0.3801574110984802, -0.365803062915802, -0.3514487147331238, -0.33709436655044556, -0.3227400481700897, -0.3083856999874115, -0.2940313518047333, -0.27967700362205505, -0.26532265543937683, -0.2509683072566986, -0.23661397397518158, -0.22225962579250336, -0.20790529251098633, -0.1935509294271469, -0.1791965812444687, -0.16484223306179047, -0.15048789978027344, -0.13613355159759521, -0.12177920341491699, -0.10742485523223877, -0.09307051450014114, -0.07871615886688232, -0.0643618106842041, -0.050007469952106476, -0.03565312176942825, -0.02129877731204033, -0.006944432854652405, 0.007409915328025818, 0.021764256060123444, 0.03611859679222107, 0.050472941249608994, 0.06482728570699692, 0.07918163388967514, 0.09353597462177277, 0.10789032280445099, 0.12224467098712921, 0.13659900426864624, 0.15095335245132446, 0.16530770063400269, 0.1796620488166809, 0.19401639699935913, 0.20837073028087616, 0.22272507846355438, 0.2370794266462326, 0.25143375992774963, 0.26578813791275024, 0.28014248609542847, 0.2944968342781067, 0.3088511824607849, 0.32320553064346313, 0.33755987882614136, 0.3519142270088196, 0.3662685453891754, 0.38062289357185364, 0.39497724175453186, 0.4093315899372101, 0.4236859381198883, 0.43804028630256653, 0.45239460468292236, 0.4667489528656006, 0.4811033010482788, 0.49545764923095703]}, "gradients/conv2.weight": {"_type": "histogram", "values": [3.0, 0.0, 1.0, 4.0, 2.0, 2.0, 5.0, 4.0, 9.0, 17.0, 17.0, 14.0, 25.0, 26.0, 44.0, 57.0, 87.0, 197.0, 274.0, 480.0, 923.0, 1852.0, 64668.0, 2384.0, 952.0, 501.0, 325.0, 177.0, 124.0, 93.0, 72.0, 44.0, 26.0, 42.0, 34.0, 26.0, 19.0, 25.0, 17.0, 21.0, 17.0, 13.0, 14.0, 21.0, 9.0, 9.0, 5.0, 3.0, 4.0, 6.0, 2.0, 7.0, 4.0, 1.0, 3.0, 5.0, 2.0, 3.0, 0.0, 3.0, 2.0, 1.0, 0.0, 1.0], "bins": [-0.14901430904865265, -0.14248265326023102, -0.1359509974718094, -0.12941934168338776, -0.12288768589496613, -0.1163560301065445, -0.10982438176870346, -0.10329272598028183, -0.0967610701918602, -0.09022941440343857, -0.08369775861501694, -0.0771661102771759, -0.07063445448875427, -0.06410279870033264, -0.05757114291191101, -0.05103948712348938, -0.04450783133506775, -0.03797617554664612, -0.03144451975822449, -0.024912867695093155, -0.018381211906671524, -0.011849556118249893, -0.005317904055118561, 0.00121375173330307, 0.007745400071144104, 0.01427705492824316, 0.020808709785342216, 0.027340363711118698, 0.03387201949954033, 0.04040367528796196, 0.04693532735109329, 0.05346698313951492, 0.059998661279678345, 0.06653031706809998, 0.0730619728565216, 0.07959362864494324, 0.08612528443336487, 0.0926569402217865, 0.09918858855962753, 0.10572024434804916, 0.11225190758705139, 0.11878356337547302, 0.12531521916389465, 0.13184687495231628, 0.13837853074073792, 0.14491018652915955, 0.15144184231758118, 0.1579734981060028, 0.16450513899326324, 0.17103679478168488, 0.1775684505701065, 0.18410010635852814, 0.19063176214694977, 0.1971634179353714, 0.20369505882263184, 0.21022671461105347, 0.2167583703994751, 0.22329002618789673, 0.22982168197631836, 0.23635333776474, 0.24288499355316162, 0.24941664934158325, 0.2559483051300049, 0.2624799609184265, 0.26901161670684814]}, "gradients/conv2.bias": {"_type": "histogram", "values": [1.0, 0.0, 0.0, 0.0, 0.0, 0.0, 0.0, 0.0, 0.0, 1.0, 0.0, 1.0, 1.0, 1.0, 1.0, 2.0, 2.0, 2.0, 2.0, 102.0, 2.0, 2.0, 1.0, 2.0, 1.0, 3.0, 0.0, 0.0, 0.0, 0.0, 0.0, 0.0, 0.0, 0.0, 0.0, 0.0, 0.0, 0.0, 0.0, 0.0, 0.0, 0.0, 0.0, 0.0, 0.0, 0.0, 0.0, 0.0, 0.0, 0.0, 0.0, 0.0, 0.0, 0.0, 0.0, 0.0, 0.0, 0.0, 0.0, 0.0, 0.0, 0.0, 0.0, 1.0], "bins": [-0.2941448390483856, -0.2790062725543976, -0.26386770606040955, -0.2487291395664215, -0.23359057307243347, -0.21845200657844543, -0.2033134400844574, -0.18817487359046936, -0.17303630709648132, -0.1578977406024933, -0.14275917410850525, -0.1276206076145172, -0.11248204112052917, -0.09734347462654114, -0.0822049081325531, -0.06706634163856506, -0.051927775144577026, -0.03678920865058899, -0.021650642156600952, -0.006512075662612915, 0.008626490831375122, 0.02376505732536316, 0.038903623819351196, 0.05404219031333923, 0.06918075680732727, 0.08431932330131531, 0.09945788979530334, 0.11459645628929138, 0.12973502278327942, 0.14487358927726746, 0.1600121557712555, 0.17515072226524353, 0.19028925895690918, 0.20542782545089722, 0.22056639194488525, 0.2357049584388733, 0.25084352493286133, 0.26598209142684937, 0.2811206579208374, 0.29625922441482544, 0.3113977909088135, 0.3265363574028015, 0.34167492389678955, 0.3568134903907776, 0.3719520568847656, 0.38709062337875366, 0.4022291898727417, 0.41736775636672974, 0.4325063228607178, 0.4476448893547058, 0.46278345584869385, 0.4779220223426819, 0.4930605888366699, 0.508199155330658, 0.523337721824646, 0.538476288318634, 0.5536148548126221, 0.5687534213066101, 0.5838919878005981, 0.5990305542945862, 0.6141691207885742, 0.6293076872825623, 0.6444462537765503, 0.6595848202705383, 0.6747233867645264]}, "gradients/conv1.weight": {"_type": "histogram", "values": [2.0, 0.0, 1.0, 2.0, 4.0, 1.0, 2.0, 2.0, 4.0, 1.0, 2.0, 1.0, 5.0, 2.0, 3.0, 3.0, 0.0, 3.0, 2.0, 4.0, 2.0, 2.0, 2.0, 2.0, 1.0, 2.0, 4.0, 9.0, 10.0, 8.0, 6.0, 11.0, 18.0, 17.0, 16.0, 16.0, 23.0, 60.0, 45.0, 54.0, 74.0, 82.0, 93.0, 95.0, 108.0, 114.0, 101.0, 90.0, 138.0, 104.0, 79.0, 46.0, 54.0, 44.0, 27.0, 36.0, 16.0, 18.0, 20.0, 15.0, 11.0, 4.0, 3.0, 4.0], "bins": [-0.44845321774482727, -0.43853020668029785, -0.4286072254180908, -0.4186842143535614, -0.40876123309135437, -0.39883822202682495, -0.3889152407646179, -0.3789922297000885, -0.3690692186355591, -0.35914620757102966, -0.34922322630882263, -0.3393002152442932, -0.3293772339820862, -0.31945422291755676, -0.30953124165534973, -0.2996082305908203, -0.2896852493286133, -0.27976223826408386, -0.26983925700187683, -0.2599162459373474, -0.24999326467514038, -0.24007025361061096, -0.23014725744724274, -0.2202242612838745, -0.2103012651205063, -0.20037826895713806, -0.19045527279376984, -0.1805322766304016, -0.1706092655658722, -0.16068628430366516, -0.15076327323913574, -0.14084027707576752, -0.13091731071472168, -0.12099431455135345, -0.11107131838798523, -0.10114831477403641, -0.09122531861066818, -0.08130232244729996, -0.07137931883335114, -0.06145632266998291, -0.051533326506614685, -0.04161033034324646, -0.031687330454587936, -0.021764332428574562, -0.011841334402561188, -0.0019183382391929626, 0.008004661649465561, 0.017927661538124084, 0.02785065770149231, 0.037773653864860535, 0.04769665375351906, 0.05761965364217758, 0.0675426498055458, 0.07746564596891403, 0.08738864958286285, 0.09731164574623108, 0.1072346419095993, 0.11715763807296753, 0.12708063423633575, 0.13700363039970398, 0.1469266414642334, 0.15684962272644043, 0.16677263379096985, 0.17669562995433807, 0.1866186261177063]}, "gradients/conv1.bias": {"_type": "histogram", "values": [1.0, 0.0, 0.0, 0.0, 0.0, 0.0, 0.0, 0.0, 0.0, 0.0, 1.0, 1.0, 0.0, 1.0, 0.0, 1.0, 0.0, 1.0, 0.0, 2.0, 2.0, 1.0, 2.0, 4.0, 4.0, 1.0, 4.0, 0.0, 0.0, 6.0, 6.0, 3.0, 3.0, 3.0, 3.0, 2.0, 0.0, 2.0, 0.0, 1.0, 1.0, 1.0, 1.0, 1.0, 0.0, 0.0, 0.0, 0.0, 0.0, 0.0, 0.0, 0.0, 0.0, 1.0, 0.0, 0.0, 0.0, 2.0, 0.0, 0.0, 0.0, 1.0, 0.0, 1.0], "bins": [-0.3152521252632141, -0.3038861155509949, -0.29252010583877563, -0.281154066324234, -0.26978805661201477, -0.25842204689979553, -0.2470560222864151, -0.23568999767303467, -0.22432398796081543, -0.2129579782485962, -0.20159195363521576, -0.19022592902183533, -0.1788599193096161, -0.16749390959739685, -0.15612788498401642, -0.144761860370636, -0.13339585065841675, -0.12202983349561691, -0.11066381633281708, -0.09929779917001724, -0.08793178200721741, -0.07656576484441757, -0.06519974768161774, -0.0538337305188179, -0.042467713356018066, -0.03110169619321823, -0.019735679030418396, -0.00836966186761856, 0.0029963552951812744, 0.01436237245798111, 0.025728389620780945, 0.03709440678358078, 0.048460423946380615, 0.05982644110918045, 0.07119245827198029, 0.08255847543478012, 0.09392449259757996, 0.10529050976037979, 0.11665652692317963, 0.12802255153656006, 0.1393885612487793, 0.15075457096099854, 0.16212059557437897, 0.1734866201877594, 0.18485262989997864, 0.19621863961219788, 0.2075846642255783, 0.21895068883895874, 0.23031669855117798, 0.24168270826339722, 0.25304871797561646, 0.2644147574901581, 0.2757807672023773, 0.28714677691459656, 0.2985128164291382, 0.3098788261413574, 0.32124483585357666, 0.3326108455657959, 0.34397685527801514, 0.35534289479255676, 0.366708904504776, 0.37807491421699524, 0.38944095373153687, 0.4008069634437561, 0.41217297315597534]}}