{"Epoch": 10, "Loss": 0.7936127358927062, "Train Accuracy": 0.7746149443877678, "Train Precision": 0.7812802027375376, "Train Recall": 0.7746149443877678, "Train F1": 0.7739026070531102, "Validation Accuracy": 0.7373432419879238, "Validation Precision": 0.7464067491922852, "Validation Recall": 0.7373432419879238, "Validation F1": 0.7367717918470303, "_timestamp": 1702646665.3998635, "_runtime": 57723.05584049225, "_step": 9, "gradients/fc2.bias": {"_type": "histogram", "values": [1.0, 0.0, 0.0, 1.0, 1.0, 0.0, 0.0, 0.0, 0.0, 0.0, 0.0, 0.0, 0.0, 0.0, 0.0, 0.0, 0.0, 0.0, 1.0, 0.0, 1.0, 0.0, 1.0, 0.0, 0.0, 2.0, 0.0, 1.0, 0.0, 1.0, 0.0, 0.0, 1.0, 1.0, 0.0, 10.0, 3.0, 2.0, 0.0, 0.0, 1.0, 0.0, 0.0, 1.0, 1.0, 0.0, 0.0, 1.0, 0.0, 1.0, 0.0, 0.0, 0.0, 0.0, 0.0, 0.0, 0.0, 1.0, 1.0, 0.0, 1.0, 0.0, 1.0, 1.0], "bins": [-0.033283449709415436, -0.03234390541911125, -0.03140435740351677, -0.030464813113212585, -0.0295252688229084, -0.02858572266995907, -0.027646176517009735, -0.02670663222670555, -0.025767087936401367, -0.024827541783452034, -0.02388799749314785, -0.022948451340198517, -0.022008907049894333, -0.021069360896945, -0.020129814743995667, -0.019190270453691483, -0.01825072430074215, -0.017311178147792816, -0.016371633857488632, -0.015432087704539299, -0.014492543414235115, -0.013552997261285782, -0.012613452039659023, -0.011673906818032265, -0.010734360665082932, -0.009794815443456173, -0.008855270221829414, -0.007915724068880081, -0.00697617931291461, -0.006036634091287851, -0.0050970884039998055, -0.004157543182373047, -0.003218000754714012, -0.0022784555330872536, -0.0013389100786298513, -0.0003993646241724491, 0.0005401805974543095, 0.001479725819081068, 0.002419271506369114, 0.0033588167279958725, 0.0042983610183000565, 0.005237906239926815, 0.006177451461553574, 0.0071169971488416195, 0.00805654190480709, 0.008996088057756424, 0.009935633279383183, 0.010875178501009941, 0.011814724653959274, 0.012754269875586033, 0.013693815097212791, 0.014633361250162125, 0.015572905540466309, 0.016512451693415642, 0.017451997846364975, 0.01839154213666916, 0.019331086426973343, 0.020270632579922676, 0.02121017687022686, 0.022149723023176193, 0.023089267313480377, 0.02402881346642971, 0.024968359619379044, 0.025907903909683228, 0.02684745006263256]}, "gradients/fc2.weight": {"_type": "histogram", "values": [2.0, 1.0, 1.0, 0.0, 0.0, 1.0, 1.0, 3.0, 0.0, 0.0, 1.0, 3.0, 1.0, 3.0, 6.0, 1.0, 3.0, 7.0, 6.0, 10.0, 11.0, 12.0, 17.0, 22.0, 33.0, 39.0, 48.0, 72.0, 77.0, 107.0, 121.0, 160.0, 219.0, 434.0, 34960.0, 739.0, 295.0, 143.0, 85.0, 66.0, 42.0, 32.0, 17.0, 13.0, 7.0, 10.0, 10.0, 8.0, 6.0, 5.0, 7.0, 3.0, 1.0, 1.0, 5.0, 3.0, 1.0, 0.0, 2.0, 1.0, 1.0, 1.0, 1.0, 1.0], "bins": [-0.37155619263648987, -0.3606797456741333, -0.34980329871177673, -0.33892685174942017, -0.3280504047870636, -0.31717395782470703, -0.30629751086235046, -0.2954210638999939, -0.28454461693763733, -0.27366816997528076, -0.2627917230129242, -0.2519152760505676, -0.24103882908821106, -0.2301623821258545, -0.21928593516349792, -0.20840948820114136, -0.1975330412387848, -0.18665659427642822, -0.17578014731407166, -0.1649037003517151, -0.15402725338935852, -0.14315080642700195, -0.13227435946464539, -0.12139791250228882, -0.11052146553993225, -0.09964501857757568, -0.08876857161521912, -0.07789212465286255, -0.06701567769050598, -0.056139230728149414, -0.04526278376579285, -0.03438633680343628, -0.023509889841079712, -0.012633442878723145, -0.0017569959163665771, 0.00911945104598999, 0.019995898008346558, 0.030872344970703125, 0.04174879193305969, 0.05262523889541626, 0.06350168585777283, 0.0743781328201294, 0.08525457978248596, 0.09613102674484253, 0.1070074737071991, 0.11788392066955566, 0.12876036763191223, 0.1396368145942688, 0.15051326155662537, 0.16138970851898193, 0.1722661554813385, 0.18314260244369507, 0.19401904940605164, 0.2048954963684082, 0.21577194333076477, 0.22664839029312134, 0.2375248372554779, 0.24840128421783447, 0.25927773118019104, 0.2701541781425476, 0.2810306251049042, 0.29190707206726074, 0.3027835190296173, 0.3136599659919739, 0.32453641295433044]}, "gradients/fc1.bias": {"_type": "histogram", "values": [1.0, 0.0, 0.0, 1.0, 0.0, 2.0, 2.0, 6.0, 1.0, 0.0, 0.0, 2.0, 2.0, 5.0, 8.0, 8.0, 16.0, 10.0, 10.0, 11.0, 18.0, 21.0, 16.0, 16.0, 28.0, 655.0, 23.0, 28.0, 8.0, 17.0, 10.0, 13.0, 7.0, 11.0, 12.0, 14.0, 10.0, 8.0, 4.0, 4.0, 4.0, 1.0, 2.0, 1.0, 2.0, 1.0, 2.0, 0.0, 0.0, 0.0, 0.0, 0.0, 0.0, 0.0, 1.0, 1.0, 0.0, 0.0, 0.0, 0.0, 0.0, 0.0, 0.0, 1.0], "bins": [-0.007833928801119328, -0.007529261987656355, -0.007224595174193382, -0.006919928826391697, -0.006615262012928724, -0.006310595199465752, -0.006005928386002779, -0.005701261572539806, -0.005396595224738121, -0.005091928411275148, -0.004787261597812176, -0.00448259525001049, -0.004177928436547518, -0.003873261623084545, -0.0035685948096215725, -0.0032639282289892435, -0.002959261182695627, -0.0026545943692326546, -0.0023499277886003256, -0.002045260975137353, -0.0017405942780897021, -0.0014359275810420513, -0.0011312607675790787, -0.0008265941869467497, -0.0005219271406531334, -0.00021726041450165212, 8.740631164982915e-05, 0.0003920730669051409, 0.0006967397639527917, 0.0010014064610004425, 0.0013060732744634151, 0.0016107398550957441, 0.0019154064357280731, 0.0022200732491910458, 0.0025247398298233747, 0.0028294066432863474, 0.0031340732239186764, 0.003438740037381649, 0.0037434068508446217, 0.004048073664307594, 0.00435274001210928, 0.004657406825572252, 0.004962073639035225, 0.00526673998683691, 0.005571406800299883, 0.0058760736137628555, 0.006180740427225828, 0.006485407240688801, 0.0067900740541517735, 0.007094740867614746, 0.007399407681077719, 0.007704074494540691, 0.008008740842342377, 0.008313408121466637, 0.008618074469268322, 0.008922740817070007, 0.009227408096194267, 0.009532074443995953, 0.009836741723120213, 0.010141408070921898, 0.010446075350046158, 0.010750741697847843, 0.011055408045649529, 0.011360075324773788, 0.011664741672575474]}, "gradients/fc1.weight": {"_type": "histogram", "values": [2.0, 0.0, 0.0, 2.0, 2.0, 4.0, 6.0, 6.0, 7.0, 9.0, 10.0, 18.0, 14.0, 33.0, 34.0, 63.0, 94.0, 138.0, 158.0, 242.0, 344.0, 502.0, 780.0, 1286.0, 1845.0, 3055.0, 5270.0, 9276.0, 16581.0, 34469.0, 80168.0, 240051.0, 203539616.0, 1256501.0, 207550.0, 73299.0, 32091.0, 16234.0, 8640.0, 4960.0, 3003.0, 1720.0, 1095.0, 696.0, 455.0, 285.0, 184.0, 105.0, 89.0, 68.0, 43.0, 34.0, 22.0, 14.0, 9.0, 5.0, 6.0, 3.0, 4.0, 0.0, 0.0, 2.0, 0.0, 3.0], "bins": [-0.009932063519954681, -0.009630421176552773, -0.009328778833150864, -0.009027136489748955, -0.008725494146347046, -0.008423851802945137, -0.008122209459543228, -0.00782056711614132, -0.00751892477273941, -0.0072172824293375015, -0.006915640085935593, -0.006613997742533684, -0.006312355399131775, -0.006010713055729866, -0.005709070712327957, -0.005407428368926048, -0.005105786025524139, -0.0048041436821222305, -0.004502501338720322, -0.004200858995318413, -0.003899216651916504, -0.003597574308514595, -0.003295931965112686, -0.0029942896217107773, -0.0026926472783088684, -0.0023910049349069595, -0.0020893625915050507, -0.0017877202481031418, -0.001486077904701233, -0.001184435561299324, -0.0008827932178974152, -0.0005811508744955063, -0.0002795085310935974, 2.2133812308311462e-05, 0.00032377615571022034, 0.0006254184991121292, 0.0009270608425140381, 0.001228703185915947, 0.0015303455293178558, 0.0018319878727197647, 0.0021336302161216736, 0.0024352725595235825, 0.0027369149029254913, 0.0030385572463274, 0.003340199589729309, 0.003641841933131218, 0.003943484276533127, 0.004245126619935036, 0.004546768963336945, 0.0048484113067388535, 0.005150053650140762, 0.005451695993542671, 0.00575333833694458, 0.006054980680346489, 0.006356623023748398, 0.006658265367150307, 0.006959907710552216, 0.0072615500539541245, 0.007563192397356033, 0.007864834740757942, 0.008166477084159851, 0.00846811942756176, 0.008769761770963669, 0.009071404114365578, 0.009373046457767487]}, "gradients/conv3.weight": {"_type": "histogram", "values": [3.0, 1.0, 5.0, 4.0, 5.0, 0.0, 0.0, 0.0, 3.0, 2.0, 1.0, 1.0, 1.0, 6.0, 8.0, 6.0, 5.0, 5.0, 10.0, 15.0, 15.0, 8.0, 14.0, 24.0, 10.0, 31.0, 26.0, 85.0, 129.0, 279.0, 599.0, 2023.0, 288650.0, 1768.0, 465.0, 221.0, 135.0, 102.0, 50.0, 28.0, 28.0, 21.0, 13.0, 24.0, 28.0, 15.0, 11.0, 5.0, 7.0, 1.0, 3.0, 0.0, 1.0, 0.0, 0.0, 0.0, 2.0, 0.0, 0.0, 0.0, 1.0, 4.0, 0.0, 5.0], "bins": [-0.3779962658882141, -0.36637258529663086, -0.3547489047050476, -0.34312522411346436, -0.3315015435218811, -0.31987786293029785, -0.3082541823387146, -0.29663050174713135, -0.2850068211555481, -0.27338314056396484, -0.2617594599723816, -0.25013577938079834, -0.2385120987892151, -0.22688841819763184, -0.2152647227048874, -0.20364104211330414, -0.1920173466205597, -0.18039366602897644, -0.1687699854373932, -0.15714630484580994, -0.14552262425422668, -0.13389894366264343, -0.12227524816989899, -0.11065156757831573, -0.09902787208557129, -0.08740419149398804, -0.07578051090240479, -0.06415682286024094, -0.052533142268657684, -0.04090946167707443, -0.029285773634910583, -0.01766209304332733, -0.006038397550582886, 0.0055852849036455154, 0.017208967357873917, 0.028832651674747467, 0.04045633226633072, 0.05208001285791397, 0.06370370090007782, 0.07532738149166107, 0.08695104718208313, 0.09857472777366638, 0.11019840836524963, 0.12182209640741348, 0.13344576954841614, 0.1450694501399994, 0.15669314563274384, 0.1683168262243271, 0.17994052171707153, 0.19156420230865479, 0.20318788290023804, 0.2148115634918213, 0.22643524408340454, 0.2380589246749878, 0.24968262016773224, 0.2613062858581543, 0.27292996644973755, 0.2845536470413208, 0.29617732763290405, 0.3078010082244873, 0.31942468881607056, 0.3310483694076538, 0.34267204999923706, 0.3542957305908203, 0.36591944098472595]}, "gradients/conv3.bias": {"_type": "histogram", "values": [1.0, 0.0, 0.0, 0.0, 0.0, 0.0, 0.0, 0.0, 1.0, 2.0, 1.0, 0.0, 0.0, 0.0, 0.0, 0.0, 0.0, 0.0, 0.0, 0.0, 0.0, 0.0, 0.0, 2.0, 5.0, 0.0, 1.0, 3.0, 6.0, 5.0, 10.0, 6.0, 174.0, 11.0, 8.0, 8.0, 2.0, 1.0, 2.0, 2.0, 1.0, 0.0, 0.0, 0.0, 1.0, 0.0, 0.0, 0.0, 0.0, 0.0, 1.0, 0.0, 0.0, 0.0, 0.0, 0.0, 1.0, 0.0, 0.0, 0.0, 0.0, 0.0, 0.0, 1.0], "bins": [-0.6327985525131226, -0.6134651303291321, -0.5941317677497864, -0.5747983455657959, -0.5554649829864502, -0.5361315608024597, -0.516798198223114, -0.49746477603912354, -0.47813141345977783, -0.45879802107810974, -0.43946462869644165, -0.42013123631477356, -0.40079784393310547, -0.3814644515514374, -0.3621310591697693, -0.3427976369857788, -0.3234642446041107, -0.3041308522224426, -0.28479745984077454, -0.26546406745910645, -0.24613067507743835, -0.22679728269577026, -0.20746387541294098, -0.1881304830312729, -0.1687970757484436, -0.1494636833667755, -0.13013029098510742, -0.11079689115285873, -0.09146349877119064, -0.07213010638952255, -0.052796706557273865, -0.033463314175605774, -0.014129936695098877, 0.005203457549214363, 0.024536851793527603, 0.04387024790048599, 0.06320364028215408, 0.08253703266382217, 0.10187043249607086, 0.12120382487773895, 0.14053720235824585, 0.15987059473991394, 0.17920398712158203, 0.19853737950325012, 0.2178707718849182, 0.2372041642665863, 0.2565375566482544, 0.2758709788322449, 0.29520437121391296, 0.31453776359558105, 0.33387115597724915, 0.35320454835891724, 0.3725379407405853, 0.3918713331222534, 0.4112047553062439, 0.4305381178855896, 0.4498715400695801, 0.46920493245124817, 0.48853832483291626, 0.5078717470169067, 0.5272051095962524, 0.5465385317802429, 0.5658718943595886, 0.5852053165435791, 0.6045386791229248]}, "gradients/conv2.weight": {"_type": "histogram", "values": [5.0, 1.0, 3.0, 1.0, 3.0, 2.0, 2.0, 1.0, 4.0, 6.0, 4.0, 6.0, 6.0, 9.0, 20.0, 19.0, 24.0, 26.0, 47.0, 75.0, 124.0, 254.0, 484.0, 1785.0, 68070.0, 1430.0, 534.0, 266.0, 144.0, 103.0, 63.0, 56.0, 28.0, 21.0, 19.0, 13.0, 9.0, 6.0, 5.0, 8.0, 5.0, 1.0, 0.0, 0.0, 0.0, 0.0, 0.0, 0.0, 0.0, 0.0, 0.0, 0.0, 0.0, 0.0, 2.0, 7.0, 12.0, 6.0, 0.0, 0.0, 0.0, 0.0, 4.0, 5.0], "bins": [-0.24667583405971527, -0.23655018210411072, -0.22642453014850616, -0.2162988781929016, -0.20617322623729706, -0.1960475742816925, -0.18592193722724915, -0.1757962703704834, -0.16567063331604004, -0.15554498136043549, -0.14541932940483093, -0.13529367744922638, -0.12516802549362183, -0.11504237353801727, -0.10491672903299332, -0.09479107707738876, -0.08466541767120361, -0.07453976571559906, -0.0644141137599945, -0.05428846552968025, -0.0441628135740757, -0.034037161618471146, -0.02391151338815689, -0.013785861432552338, -0.0036602169275283813, 0.006465434096753597, 0.016591085121035576, 0.02671673521399498, 0.03684238716959953, 0.046968039125204086, 0.05709368735551834, 0.0672193393111229, 0.07734498381614685, 0.0874706357717514, 0.09759628772735596, 0.10772193968296051, 0.11784759163856506, 0.12797324359416962, 0.13809889554977417, 0.14822453260421753, 0.15835019946098328, 0.16847585141658783, 0.17860150337219238, 0.18872715532779694, 0.1988528072834015, 0.20897845923900604, 0.2191041111946106, 0.22922974824905396, 0.2393554002046585, 0.24948105216026306, 0.2596066892147064, 0.26973235607147217, 0.2798579931259155, 0.2899836599826813, 0.30010929703712463, 0.3102349638938904, 0.32036060094833374, 0.3304862380027771, 0.34061190485954285, 0.3507375419139862, 0.36086320877075195, 0.3709888458251953, 0.38111451268196106, 0.3912401497364044, 0.40136581659317017]}, "gradients/conv2.bias": {"_type": "histogram", "values": [1.0, 0.0, 0.0, 0.0, 0.0, 0.0, 0.0, 0.0, 0.0, 0.0, 0.0, 0.0, 0.0, 0.0, 0.0, 0.0, 0.0, 0.0, 0.0, 0.0, 1.0, 0.0, 0.0, 0.0, 0.0, 1.0, 0.0, 0.0, 2.0, 1.0, 1.0, 2.0, 1.0, 104.0, 1.0, 2.0, 3.0, 1.0, 0.0, 1.0, 1.0, 1.0, 0.0, 1.0, 0.0, 1.0, 0.0, 0.0, 0.0, 0.0, 0.0, 1.0, 0.0, 0.0, 0.0, 0.0, 0.0, 0.0, 0.0, 0.0, 0.0, 0.0, 0.0, 1.0], "bins": [-0.8021211624145508, -0.7782217860221863, -0.754322350025177, -0.7304229736328125, -0.706523597240448, -0.6826242208480835, -0.6587247848510742, -0.6348254084587097, -0.6109260320663452, -0.5870266556739807, -0.5631272196769714, -0.5392278432846069, -0.5153284668922424, -0.49142906069755554, -0.46752965450286865, -0.44363027811050415, -0.41973087191581726, -0.39583146572113037, -0.37193208932876587, -0.348032683134079, -0.3241333067417145, -0.3002339005470276, -0.2763345241546631, -0.2524351179599762, -0.2285357117652893, -0.2046363204717636, -0.18073692917823792, -0.15683752298355103, -0.13293814659118652, -0.10903874784708023, -0.08513934910297394, -0.06123995780944824, -0.03734058141708374, -0.013441188260912895, 0.01045820489525795, 0.034357599914073944, 0.05825699120759964, 0.08215638250112534, 0.10605578124523163, 0.12995517253875732, 0.15385454893112183, 0.17775394022464752, 0.20165333151817322, 0.2255527377128601, 0.2494521141052246, 0.2733515202999115, 0.2972509264945984, 0.3211503028869629, 0.3450497090816498, 0.36894911527633667, 0.39284849166870117, 0.41674789786338806, 0.44064727425575256, 0.46454668045043945, 0.48844605684280396, 0.5123454332351685, 0.5362448692321777, 0.5601442456245422, 0.5840436816215515, 0.607943058013916, 0.6318424344062805, 0.655741810798645, 0.6796412467956543, 0.7035406231880188, 0.7274399995803833]}, "gradients/conv1.weight": {"_type": "histogram", "values": [2.0, 2.0, 2.0, 2.0, 1.0, 0.0, 0.0, 1.0, 1.0, 1.0, 1.0, 2.0, 2.0, 1.0, 0.0, 2.0, 11.0, 9.0, 8.0, 7.0, 8.0, 11.0, 11.0, 9.0, 8.0, 5.0, 13.0, 18.0, 29.0, 38.0, 48.0, 44.0, 77.0, 158.0, 243.0, 296.0, 189.0, 88.0, 75.0, 50.0, 49.0, 36.0, 13.0, 17.0, 17.0, 5.0, 2.0, 4.0, 9.0, 8.0, 13.0, 14.0, 17.0, 17.0, 8.0, 5.0, 2.0, 1.0, 0.0, 4.0, 5.0, 0.0, 2.0, 7.0], "bins": [-0.6656187176704407, -0.64683598279953, -0.6280533075332642, -0.6092705726623535, -0.5904878377914429, -0.5717051029205322, -0.5529224276542664, -0.5341396927833557, -0.5153570175170898, -0.4965743124485016, -0.47779157757759094, -0.4590088725090027, -0.44022613763809204, -0.4214434325695038, -0.4026607275009155, -0.3838779926300049, -0.36509525775909424, -0.346312552690506, -0.32752981781959534, -0.3087471127510071, -0.28996437788009644, -0.2711816728115082, -0.2523989677429199, -0.23361624777317047, -0.21483352780342102, -0.19605080783367157, -0.17726808786392212, -0.15848538279533386, -0.1397026628255844, -0.12091994285583496, -0.10213723033666611, -0.08335451781749725, -0.0645717978477478, -0.04578908160328865, -0.0270063653588295, -0.008223649114370346, 0.010559067130088806, 0.029341787099838257, 0.04812449961900711, 0.06690721213817596, 0.08568993210792542, 0.10447265207767487, 0.12325536459684372, 0.14203807711601257, 0.16082079708576202, 0.17960351705551147, 0.19838622212409973, 0.21716894209384918, 0.23595166206359863, 0.2547343671321869, 0.27351710200309753, 0.2922998070716858, 0.31108254194259644, 0.3298652470111847, 0.34864795207977295, 0.3674306869506836, 0.38621339201927185, 0.4049960970878601, 0.42377883195877075, 0.442561537027359, 0.46134424209594727, 0.4801269769668579, 0.49890968203544617, 0.5176923871040344, 0.5364751219749451]}, "gradients/conv1.bias": {"_type": "histogram", "values": [1.0, 0.0, 0.0, 0.0, 0.0, 0.0, 1.0, 0.0, 0.0, 0.0, 1.0, 0.0, 0.0, 0.0, 0.0, 0.0, 1.0, 0.0, 1.0, 0.0, 1.0, 0.0, 0.0, 0.0, 0.0, 1.0, 0.0, 0.0, 0.0, 2.0, 0.0, 1.0, 2.0, 2.0, 1.0, 0.0, 0.0, 0.0, 4.0, 2.0, 6.0, 10.0, 8.0, 2.0, 3.0, 1.0, 2.0, 3.0, 0.0, 0.0, 1.0, 4.0, 0.0, 0.0, 0.0, 0.0, 0.0, 0.0, 1.0, 0.0, 0.0, 1.0, 0.0, 1.0], "bins": [-0.9022720456123352, -0.8803699016571045, -0.858467698097229, -0.8365655541419983, -0.8146633505821228, -0.7927612066268921, -0.7708590030670166, -0.7489568591117859, -0.7270547151565552, -0.7051525712013245, -0.683250367641449, -0.6613482236862183, -0.6394460201263428, -0.6175438761711121, -0.5956417322158813, -0.5737395286560059, -0.5518373250961304, -0.5299351811408997, -0.5080329775810242, -0.48613083362579346, -0.46422865986824036, -0.44232648611068726, -0.42042431235313416, -0.39852213859558105, -0.37661999464035034, -0.35471782088279724, -0.33281564712524414, -0.3109135031700134, -0.2890113294124603, -0.2671091556549072, -0.24520698189735413, -0.22330482304096222, -0.2014026641845703, -0.1795004904270172, -0.1575983315706253, -0.1356961578130722, -0.1137939915060997, -0.0918918251991272, -0.0699896514415741, -0.04808749258518219, -0.026185333728790283, -0.00428316555917263, 0.017619002610445023, 0.039521172642707825, 0.06142333894968033, 0.08332550525665283, 0.10522767901420593, 0.12712983787059784, 0.14903202652931213, 0.17093420028686523, 0.19283635914325714, 0.21473853290081024, 0.23664069175720215, 0.25854286551475525, 0.28044503927230835, 0.30234718322753906, 0.32424938678741455, 0.34615156054496765, 0.36805373430252075, 0.38995587825775146, 0.41185805201530457, 0.43376022577285767, 0.45566239953041077, 0.47756457328796387, 0.4994667172431946]}, "_wandb": {"runtime": 57724}}